=== Run information ===

Scheme:       weka.classifiers.trees.J48 -C 0.25 -M 2
Relation:     MARSYAS_EMPTYguitar_models_sv.arff
Instances:    60
Attributes:   125
              [list of attributes omitted]
Test mode:    10-fold cross-validation

=== Classifier model (full training set) ===

J48 pruned tree
------------------

Mean_Acc5_Std_Mem20_MFCC1_Power_powerFFT_WinHamming_HopSize512_WinSize512_Sum_AudioCh0 <= 0.992347
|   Mean_Acc5_Mean_Mem20_ZeroCrossings_HopSize512_WinSize512_Sum_AudioCh0 <= 0.029038
|   |   Mean_Acc5_Mean_Mem20_MFCC3_Power_powerFFT_WinHamming_HopSize512_WinSize512_Sum_AudioCh0 <= 1.064549: a6 (3.0/1.0)
|   |   Mean_Acc5_Mean_Mem20_MFCC3_Power_powerFFT_WinHamming_HopSize512_WinSize512_Sum_AudioCh0 > 1.064549: a8 (3.0)
|   Mean_Acc5_Mean_Mem20_ZeroCrossings_HopSize512_WinSize512_Sum_AudioCh0 > 0.029038
|   |   Mean_Acc5_Mean_Mem20_MFCC2_Power_powerFFT_WinHamming_HopSize512_WinSize512_Sum_AudioCh0 <= -0.50002
|   |   |   Std_Acc5_Mean_Mem20_MFCC1_Power_powerFFT_WinHamming_HopSize512_WinSize512_Sum_AudioCh0 <= 2.633292
|   |   |   |   Mean_Acc5_Mean_Mem20_MFCC10_Power_powerFFT_WinHamming_HopSize512_WinSize512_Sum_AudioCh0 <= -0.130156: a11 (6.0/2.0)
|   |   |   |   Mean_Acc5_Mean_Mem20_MFCC10_Power_powerFFT_WinHamming_HopSize512_WinSize512_Sum_AudioCh0 > -0.130156
|   |   |   |   |   Mean_Acc5_Mean_Mem20_Centroid_Power_powerFFT_WinHamming_HopSize512_WinSize512_Sum_AudioCh0 <= 0.022785: a2 (2.0)
|   |   |   |   |   Mean_Acc5_Mean_Mem20_Centroid_Power_powerFFT_WinHamming_HopSize512_WinSize512_Sum_AudioCh0 > 0.022785: a3 (2.0)
|   |   |   Std_Acc5_Mean_Mem20_MFCC1_Power_powerFFT_WinHamming_HopSize512_WinSize512_Sum_AudioCh0 > 2.633292: a12 (3.0)
|   |   Mean_Acc5_Mean_Mem20_MFCC2_Power_powerFFT_WinHamming_HopSize512_WinSize512_Sum_AudioCh0 > -0.50002
|   |   |   Std_Acc5_Mean_Mem20_ZeroCrossings_HopSize512_WinSize512_Sum_AudioCh0 <= 0.011556: a3 (3.0/1.0)
|   |   |   Std_Acc5_Mean_Mem20_ZeroCrossings_HopSize512_WinSize512_Sum_AudioCh0 > 0.011556
|   |   |   |   Std_Acc5_Std_Mem20_ZeroCrossings_HopSize512_WinSize512_Sum_AudioCh0 <= 0.008006: a1 (4.0/1.0)
|   |   |   |   Std_Acc5_Std_Mem20_ZeroCrossings_HopSize512_WinSize512_Sum_AudioCh0 > 0.008006
|   |   |   |   |   Mean_Acc5_Mean_Mem20_MFCC3_Power_powerFFT_WinHamming_HopSize512_WinSize512_Sum_AudioCh0 <= 0.481608: a4 (3.0)
|   |   |   |   |   Mean_Acc5_Mean_Mem20_MFCC3_Power_powerFFT_WinHamming_HopSize512_WinSize512_Sum_AudioCh0 > 0.481608: a5 (5.0/1.0)
Mean_Acc5_Std_Mem20_MFCC1_Power_powerFFT_WinHamming_HopSize512_WinSize512_Sum_AudioCh0 > 0.992347
|   Std_Acc5_Mean_Mem20_PeakRatio_Chroma_D#_Power_powerFFT_WinHamming_HopSize512_WinSize512_Sum_AudioCh0 <= 0.000019
|   |   Mean_Acc5_Std_Mem20_MFCC2_Power_powerFFT_WinHamming_HopSize512_WinSize512_Sum_AudioCh0 <= 0.703557: e3 (4.0)
|   |   Mean_Acc5_Std_Mem20_MFCC2_Power_powerFFT_WinHamming_HopSize512_WinSize512_Sum_AudioCh0 > 0.703557: e1 (3.0)
|   Std_Acc5_Mean_Mem20_PeakRatio_Chroma_D#_Power_powerFFT_WinHamming_HopSize512_WinSize512_Sum_AudioCh0 > 0.000019
|   |   Std_Acc5_Mean_Mem20_Flux_Power_powerFFT_WinHamming_HopSize512_WinSize512_Sum_AudioCh0 <= 0.015782
|   |   |   Mean_Acc5_Mean_Mem20_MFCC4_Power_powerFFT_WinHamming_HopSize512_WinSize512_Sum_AudioCh0 <= -0.206013: a7 (4.0/1.0)
|   |   |   Mean_Acc5_Mean_Mem20_MFCC4_Power_powerFFT_WinHamming_HopSize512_WinSize512_Sum_AudioCh0 > -0.206013
|   |   |   |   Mean_Acc5_Mean_Mem20_MFCC4_Power_powerFFT_WinHamming_HopSize512_WinSize512_Sum_AudioCh0 <= 0.545298
|   |   |   |   |   Mean_Acc5_Mean_Mem20_MFCC2_Power_powerFFT_WinHamming_HopSize512_WinSize512_Sum_AudioCh0 <= 0.112584: a6 (2.0)
|   |   |   |   |   Mean_Acc5_Mean_Mem20_MFCC2_Power_powerFFT_WinHamming_HopSize512_WinSize512_Sum_AudioCh0 > 0.112584: a9 (4.0)
|   |   |   |   Mean_Acc5_Mean_Mem20_MFCC4_Power_powerFFT_WinHamming_HopSize512_WinSize512_Sum_AudioCh0 > 0.545298: a10 (4.0)
|   |   Std_Acc5_Mean_Mem20_Flux_Power_powerFFT_WinHamming_HopSize512_WinSize512_Sum_AudioCh0 > 0.015782: e2 (5.0/1.0)

Number of Leaves  : 	17

Size of the tree : 	33


Time taken to build model: 0.08 seconds

=== Stratified cross-validation ===
=== Summary ===

Correctly Classified Instances           9               15      %
Incorrectly Classified Instances        51               85      %
Kappa statistic                          0.0893
Mean absolute error                      0.1126
Root mean squared error                  0.3183
Relative absolute error                 89.641  %
Root relative squared error            126.3976 %
Coverage of cases (0.95 level)          18.3333 %
Mean rel. region size (0.95 level)       9.3333 %
Total Number of Instances               60     

=== Detailed Accuracy By Class ===

                 TP Rate  FP Rate  Precision  Recall   F-Measure  MCC      ROC Area  PRC Area  Class
                 0.000    0.054    0.000      0.000    0.000      -0.061   0.455     0.067     a1
                 0.500    0.036    0.500      0.500    0.500      0.464    0.728     0.283     a10
                 0.000    0.071    0.000      0.000    0.000      -0.071   0.446     0.067     a11
                 0.000    0.071    0.000      0.000    0.000      -0.071   0.464     0.067     a12
                 0.250    0.125    0.125      0.250    0.167      0.092    0.565     0.113     a2
                 0.000    0.107    0.000      0.000    0.000      -0.089   0.420     0.067     a3
                 0.250    0.071    0.200      0.250    0.222      0.161    0.563     0.100     a4
                 0.250    0.071    0.200      0.250    0.222      0.161    0.589     0.175     a5
                 0.000    0.036    0.000      0.000    0.000      -0.050   0.482     0.067     a6
                 0.000    0.089    0.000      0.000    0.000      -0.081   0.455     0.067     a7
                 0.000    0.018    0.000      0.000    0.000      -0.035   0.688     0.146     a8
                 0.250    0.036    0.333      0.250    0.286      0.245    0.600     0.133     a9
                 0.000    0.036    0.000      0.000    0.000      -0.050   0.464     0.067     e1
                 0.250    0.054    0.250      0.250    0.250      0.196    0.592     0.113     e2
                 0.500    0.036    0.500      0.500    0.500      0.464    0.737     0.367     e3
Weighted Avg.    0.150    0.061    0.141      0.150    0.143      0.085    0.550     0.126     

=== Confusion Matrix ===

 a b c d e f g h i j k l m n o   <-- classified as
 0 0 0 0 1 0 1 1 0 1 0 0 0 0 0 | a = a1
 0 2 0 0 0 0 0 0 0 0 1 1 0 0 0 | b = a10
 0 0 0 2 1 0 0 0 0 1 0 0 0 0 0 | c = a11
 0 0 2 0 1 0 1 0 0 0 0 0 0 0 0 | d = a12
 1 0 1 1 1 0 0 0 0 0 0 0 0 0 0 | e = a2
 1 0 0 1 0 0 0 1 0 1 0 0 0 0 0 | f = a3
 0 0 0 0 0 1 1 2 0 0 0 0 0 0 0 | g = a4
 0 0 0 0 2 0 1 1 0 0 0 0 0 0 0 | h = a5
 1 0 0 0 1 2 0 0 0 0 0 0 0 0 0 | i = a6
 0 0 0 0 0 1 1 0 1 0 0 0 0 1 0 | j = a7
 0 0 0 0 1 1 0 0 1 1 0 0 0 0 0 | k = a8
 0 0 0 0 0 0 0 0 0 1 0 1 1 0 1 | l = a9
 0 1 0 0 0 0 0 0 0 0 0 0 0 2 1 | m = e1
 0 0 0 0 0 1 0 0 0 0 0 1 1 1 0 | n = e2
 0 1 1 0 0 0 0 0 0 0 0 0 0 0 2 | o = e3

